<?xml version="1.0"?>
<opencv_storage>
<cascade>
  <stageType>BOOST</stageType>
  <featureType>HAAR</featureType>
  <height>30</height>
  <width>30</width>
  <stageParams>
    <boostType>GAB</boostType>
    <minHitRate>9.9500000476837158e-01</minHitRate>
    <maxFalseAlarm>5.0000000000000000e-01</maxFalseAlarm>
    <weightTrimRate>9.4999999999999996e-01</weightTrimRate>
    <maxDepth>1</maxDepth>
    <maxWeakCount>100</maxWeakCount></stageParams>
  <featureParams>
    <maxCatCount>0</maxCatCount>
    <featSize>1</featSize>
    <mode>BASIC</mode></featureParams>
  <stageNum>12</stageNum>
  <stages>
    <!-- stage 0 -->
    <_>
      <maxWeakCount>1</maxWeakCount>
      <stageThreshold>1.</stageThreshold>
      <weakClassifiers>
        <_>
          <internalNodes>
            0 -1 8 -2.3641684651374817e-01</internalNodes>
          <leafValues>
            1. -1.</leafValues></_></weakClassifiers></_>
    <!-- stage 1 -->
    <_>
      <maxWeakCount>1</maxWeakCount>
      <stageThreshold>9.0476191043853760e-01</stageThreshold>
      <weakClassifiers>
        <_>
          <internalNodes>
            0 -1 21 -3.2418373972177505e-02</internalNodes>
          <leafValues>
            9.0476191043853760e-01 -1.</leafValues></_></weakClassifiers></_>
    <!-- stage 2 -->
    <_>
      <maxWeakCount>2</maxWeakCount>
      <stageThreshold>6.2341704964637756e-02</stageThreshold>
      <weakClassifiers>
        <_>
          <internalNodes>
            0 -1 5 -4.1403016075491905e-03</internalNodes>
          <leafValues>
            -8.8888889551162720e-01 9.7872340679168701e-01</leafValues></_>
        <_>
          <internalNodes>
            0 -1 11 -5.2255846560001373e-02</internalNodes>
          <leafValues>
            9.5123058557510376e-01 -9.0069824457168579e-01</leafValues></_></weakClassifiers></_>
    <!-- stage 3 -->
    <_>
      <maxWeakCount>2</maxWeakCount>
      <stageThreshold>-1.1257941275835037e-01</stageThreshold>
      <weakClassifiers>
        <_>
          <internalNodes>
            0 -1 17 1.3930874411016703e-03</internalNodes>
          <leafValues>
            -8.8888889551162720e-01 9.7872340679168701e-01</leafValues></_>
        <_>
          <internalNodes>
            0 -1 18 -5.2522057667374611e-03</internalNodes>
          <leafValues>
            7.7630949020385742e-01 -8.7583088874816895e-01</leafValues></_></weakClassifiers></_>
    <!-- stage 4 -->
    <_>
      <maxWeakCount>2</maxWeakCount>
      <stageThreshold>-8.9587837457656860e-02</stageThreshold>
      <weakClassifiers>
        <_>
          <internalNodes>
            0 -1 14 1.2706533074378967e-02</internalNodes>
          <leafValues>
            -8.8888889551162720e-01 9.7872340679168701e-01</leafValues></_>
        <_>
          <internalNodes>
            0 -1 20 -4.1025211103260517e-03</internalNodes>
          <leafValues>
            7.9930102825164795e-01 -9.8373329639434814e-01</leafValues></_></weakClassifiers></_>
    <!-- stage 5 -->
    <_>
      <maxWeakCount>2</maxWeakCount>
      <stageThreshold>-2.1154598891735077e-01</stageThreshold>
      <weakClassifiers>
        <_>
          <internalNodes>
            0 -1 3 2.4053769186139107e-02</internalNodes>
          <leafValues>
            -9.8198199272155762e-01 8.1651377677917480e-01</leafValues></_>
        <_>
          <internalNodes>
            0 -1 16 -8.5379853844642639e-02</internalNodes>
          <leafValues>
            7.7043598890304565e-01 -8.9906686544418335e-01</leafValues></_></weakClassifiers></_>
    <!-- stage 6 -->
    <_>
      <maxWeakCount>2</maxWeakCount>
      <stageThreshold>-8.3398282527923584e-02</stageThreshold>
      <weakClassifiers>
        <_>
          <internalNodes>
            0 -1 9 -6.6156230866909027e-02</internalNodes>
          <leafValues>
            -9.8165136575698853e-01 7.8378379344940186e-01</leafValues></_>
        <_>
          <internalNodes>
            0 -1 0 1.1844250839203596e-03</internalNodes>
          <leafValues>
            -8.3141893148422241e-01 8.9825308322906494e-01</leafValues></_></weakClassifiers></_>
    <!-- stage 7 -->
    <_>
      <maxWeakCount>2</maxWeakCount>
      <stageThreshold>5.2663359791040421e-02</stageThreshold>
      <weakClassifiers>
        <_>
          <internalNodes>
            0 -1 15 8.5549824871122837e-04</internalNodes>
          <leafValues>
            -7.5572520494461060e-01 8.8764047622680664e-01</leafValues></_>
        <_>
          <internalNodes>
            0 -1 10 6.0968548059463501e-03</internalNodes>
          <leafValues>
            -8.0093544721603394e-01 8.0838853120803833e-01</leafValues></_></weakClassifiers></_>
    <!-- stage 8 -->
    <_>
      <maxWeakCount>2</maxWeakCount>
      <stageThreshold>2.2172626107931137e-02</stageThreshold>
      <weakClassifiers>
        <_>
          <internalNodes>
            0 -1 13 2.0628222264349461e-03</internalNodes>
          <leafValues>
            -8.5600000619888306e-01 9.1578948497772217e-01</leafValues></_>
        <_>
          <internalNodes>
            0 -1 1 -5.8260023593902588e-02</internalNodes>
          <leafValues>
            -8.2965248823165894e-01 8.7817263603210449e-01</leafValues></_></weakClassifiers></_>
    <!-- stage 9 -->
    <_>
      <maxWeakCount>2</maxWeakCount>
      <stageThreshold>-9.5139205455780029e-02</stageThreshold>
      <weakClassifiers>
        <_>
          <internalNodes>
            0 -1 2 1.4075716026127338e-02</internalNodes>
          <leafValues>
            -7.5939851999282837e-01 9.3103450536727905e-01</leafValues></_>
        <_>
          <internalNodes>
            0 -1 7 -5.4121490567922592e-02</internalNodes>
          <leafValues>
            6.6425931453704834e-01 -9.8399668931961060e-01</leafValues></_></weakClassifiers></_>
    <!-- stage 10 -->
    <_>
      <maxWeakCount>2</maxWeakCount>
      <stageThreshold>-1.4836712181568146e-01</stageThreshold>
      <weakClassifiers>
        <_>
          <internalNodes>
            0 -1 12 1.2521673925220966e-03</internalNodes>
          <leafValues>
            -9.1304349899291992e-01 8.0952382087707520e-01</leafValues></_>
        <_>
          <internalNodes>
            0 -1 6 -2.7386678266339004e-04</internalNodes>
          <leafValues>
            -9.4194358587265015e-01 7.6467633247375488e-01</leafValues></_></weakClassifiers></_>
    <!-- stage 11 -->
    <_>
      <maxWeakCount>2</maxWeakCount>
      <stageThreshold>6.2157876789569855e-02</stageThreshold>
      <weakClassifiers>
        <_>
          <internalNodes>
            0 -1 19 -5.3346220403909683e-02</internalNodes>
          <leafValues>
            1. -8.6046510934829712e-01</leafValues></_>
        <_>
          <internalNodes>
            0 -1 4 -2.2384466137737036e-03</internalNodes>
          <leafValues>
            -9.1318184137344360e-01 9.2262297868728638e-01</leafValues></_></weakClassifiers></_></stages>
  <features>
    <_>
      <rects>
        <_>
          0 0 2 8 -1.</_>
        <_>
          1 0 1 8 2.</_></rects>
      <tilted>0</tilted></_>
    <_>
      <rects>
        <_>
          0 8 7 6 -1.</_>
        <_>
          0 10 7 2 2.</_></rects>
      <tilted>0</tilted></_>
    <_>
      <rects>
        <_>
          0 8 22 6 -1.</_>
        <_>
          0 11 22 3 2.</_></rects>
      <tilted>0</tilted></_>
    <_>
      <rects>
        <_>
          0 12 8 15 -1.</_>
        <_>
          4 12 4 15 2.</_></rects>
      <tilted>0</tilted></_>
    <_>
      <rects>
        <_>
          0 22 1 3 -1.</_>
        <_>
          0 23 1 1 2.</_></rects>
      <tilted>0</tilted></_>
    <_>
      <rects>
        <_>
          0 23 2 3 -1.</_>
        <_>
          0 24 2 1 2.</_></rects>
      <tilted>0</tilted></_>
    <_>
      <rects>
        <_>
          0 28 4 2 -1.</_>
        <_>
          0 29 4 1 2.</_></rects>
      <tilted>0</tilted></_>
    <_>
      <rects>
        <_>
          1 15 25 8 -1.</_>
        <_>
          1 19 25 4 2.</_></rects>
      <tilted>0</tilted></_>
    <_>
      <rects>
        <_>
          2 5 21 12 -1.</_>
        <_>
          2 9 21 4 2.</_></rects>
      <tilted>0</tilted></_>
    <_>
      <rects>
        <_>
          3 26 27 3 -1.</_>
        <_>
          12 26 9 3 2.</_></rects>
      <tilted>0</tilted></_>
    <_>
      <rects>
        <_>
          4 22 16 6 -1.</_>
        <_>
          4 22 8 3 2.</_>
        <_>
          12 25 8 3 2.</_></rects>
      <tilted>0</tilted></_>
    <_>
      <rects>
        <_>
          5 14 20 8 -1.</_>
        <_>
          5 18 20 4 2.</_></rects>
      <tilted>0</tilted></_>
    <_>
      <rects>
        <_>
          6 8 22 4 -1.</_>
        <_>
          6 10 22 2 2.</_></rects>
      <tilted>0</tilted></_>
    <_>
      <rects>
        <_>
          9 8 15 4 -1.</_>
        <_>
          9 10 15 2 2.</_></rects>
      <tilted>0</tilted></_>
    <_>
      <rects>
        <_>
          12 5 18 10 -1.</_>
        <_>
          12 10 18 5 2.</_></rects>
      <tilted>0</tilted></_>
    <_>
      <rects>
        <_>
          12 7 6 4 -1.</_>
        <_>
          12 9 6 2 2.</_></rects>
      <tilted>0</tilted></_>
    <_>
      <rects>
        <_>
          12 12 17 12 -1.</_>
        <_>
          12 18 17 6 2.</_></rects>
      <tilted>0</tilted></_>
    <_>
      <rects>
        <_>
          16 4 2 12 -1.</_>
        <_>
          16 10 2 6 2.</_></rects>
      <tilted>0</tilted></_>
    <_>
      <rects>
        <_>
          19 25 6 4 -1.</_>
        <_>
          22 25 3 4 2.</_></rects>
      <tilted>0</tilted></_>
    <_>
      <rects>
        <_>
          20 14 10 15 -1.</_>
        <_>
          25 14 5 15 2.</_></rects>
      <tilted>0</tilted></_>
    <_>
      <rects>
        <_>
          22 0 8 2 -1.</_>
        <_>
          26 0 4 2 2.</_></rects>
      <tilted>0</tilted></_>
    <_>
      <rects>
        <_>
          22 0 8 30 -1.</_>
        <_>
          26 0 4 30 2.</_></rects>
      <tilted>0</tilted></_></features></cascade>
</opencv_storage>
