<?xml version="1.0"?>
<opencv_storage>
<cascade>
  <stageType>BOOST</stageType>
  <featureType>HAAR</featureType>
  <height>30</height>
  <width>30</width>
  <stageParams>
    <boostType>GAB</boostType>
    <minHitRate>9.9500000476837158e-01</minHitRate>
    <maxFalseAlarm>5.0000000000000000e-01</maxFalseAlarm>
    <weightTrimRate>9.4999999999999996e-01</weightTrimRate>
    <maxDepth>1</maxDepth>
    <maxWeakCount>100</maxWeakCount></stageParams>
  <featureParams>
    <maxCatCount>0</maxCatCount>
    <featSize>1</featSize>
    <mode>BASIC</mode></featureParams>
  <stageNum>25</stageNum>
  <stages>
    <!-- stage 0 -->
    <_>
      <maxWeakCount>2</maxWeakCount>
      <stageThreshold>8.7475264444947243e-03</stageThreshold>
      <weakClassifiers>
        <_>
          <internalNodes>
            0 -1 54 -4.2237019538879395e-01</internalNodes>
          <leafValues>
            -9.4915252923965454e-01 9.2805755138397217e-01</leafValues></_>
        <_>
          <internalNodes>
            0 -1 6 -6.0569755733013153e-02</internalNodes>
          <leafValues>
            -7.8570020198822021e-01 9.5790004730224609e-01</leafValues></_></weakClassifiers></_>
    <!-- stage 1 -->
    <_>
      <maxWeakCount>2</maxWeakCount>
      <stageThreshold>-6.6798582673072815e-02</stageThreshold>
      <weakClassifiers>
        <_>
          <internalNodes>
            0 -1 11 -8.1697314977645874e-02</internalNodes>
          <leafValues>
            7.8082191944122314e-01 -8.7387388944625854e-01</leafValues></_>
        <_>
          <internalNodes>
            0 -1 1 -2.0995974540710449e-02</internalNodes>
          <leafValues>
            8.0707526206970215e-01 -8.4489184617996216e-01</leafValues></_></weakClassifiers></_>
    <!-- stage 2 -->
    <_>
      <maxWeakCount>2</maxWeakCount>
      <stageThreshold>-8.4836296737194061e-03</stageThreshold>
      <weakClassifiers>
        <_>
          <internalNodes>
            0 -1 31 5.8794971555471420e-03</internalNodes>
          <leafValues>
            -7.3228347301483154e-01 8.4615385532379150e-01</leafValues></_>
        <_>
          <internalNodes>
            0 -1 44 -8.4402663633227348e-03</internalNodes>
          <leafValues>
            7.7213847637176514e-01 -8.5463750362396240e-01</leafValues></_></weakClassifiers></_>
    <!-- stage 3 -->
    <_>
      <maxWeakCount>2</maxWeakCount>
      <stageThreshold>2.0174186676740646e-02</stageThreshold>
      <weakClassifiers>
        <_>
          <internalNodes>
            0 -1 5 -2.0071342587471008e-02</internalNodes>
          <leafValues>
            7.8378379344940186e-01 -9.0825688838958740e-01</leafValues></_>
        <_>
          <internalNodes>
            0 -1 13 3.2634357921779156e-04</internalNodes>
          <leafValues>
            -7.6360958814620972e-01 9.3762964010238647e-01</leafValues></_></weakClassifiers></_>
    <!-- stage 4 -->
    <_>
      <maxWeakCount>3</maxWeakCount>
      <stageThreshold>-8.2416480779647827e-01</stageThreshold>
      <weakClassifiers>
        <_>
          <internalNodes>
            0 -1 39 -2.9302321374416351e-02</internalNodes>
          <leafValues>
            8.2905983924865723e-01 -5.7142859697341919e-01</leafValues></_>
        <_>
          <internalNodes>
            0 -1 0 6.5741701982915401e-03</internalNodes>
          <leafValues>
            -7.0109456777572632e-01 6.6752910614013672e-01</leafValues></_>
        <_>
          <internalNodes>
            0 -1 8 1.7660334706306458e-02</internalNodes>
          <leafValues>
            -9.5796728134155273e-01 4.4835829734802246e-01</leafValues></_></weakClassifiers></_>
    <!-- stage 5 -->
    <_>
      <maxWeakCount>2</maxWeakCount>
      <stageThreshold>-1.0332544893026352e-01</stageThreshold>
      <weakClassifiers>
        <_>
          <internalNodes>
            0 -1 15 -1.1809652205556631e-03</internalNodes>
          <leafValues>
            6.2732917070388794e-01 -8.7500000000000000e-01</leafValues></_>
        <_>
          <internalNodes>
            0 -1 29 3.3881932497024536e-02</internalNodes>
          <leafValues>
            -7.3065465688705444e-01 7.9942858219146729e-01</leafValues></_></weakClassifiers></_>
    <!-- stage 6 -->
    <_>
      <maxWeakCount>2</maxWeakCount>
      <stageThreshold>-7.5136020779609680e-02</stageThreshold>
      <weakClassifiers>
        <_>
          <internalNodes>
            0 -1 47 4.7626701416447759e-04</internalNodes>
          <leafValues>
            -6.5671640634536743e-01 8.5365855693817139e-01</leafValues></_>
        <_>
          <internalNodes>
            0 -1 28 1.6351964324712753e-02</internalNodes>
          <leafValues>
            6.2400305271148682e-01 -9.2879456281661987e-01</leafValues></_></weakClassifiers></_>
    <!-- stage 7 -->
    <_>
      <maxWeakCount>3</maxWeakCount>
      <stageThreshold>-6.8405640125274658e-01</stageThreshold>
      <weakClassifiers>
        <_>
          <internalNodes>
            0 -1 20 -1.9791447557508945e-03</internalNodes>
          <leafValues>
            8.1967210769653320e-01 -6.1481481790542603e-01</leafValues></_>
        <_>
          <internalNodes>
            0 -1 43 -1.4025060459971428e-02</internalNodes>
          <leafValues>
            6.1666381359100342e-01 -8.0646860599517822e-01</leafValues></_>
        <_>
          <internalNodes>
            0 -1 59 -1.1686885729432106e-02</internalNodes>
          <leafValues>
            7.3722696304321289e-01 -5.7266139984130859e-01</leafValues></_></weakClassifiers></_>
    <!-- stage 8 -->
    <_>
      <maxWeakCount>3</maxWeakCount>
      <stageThreshold>-4.9247854948043823e-01</stageThreshold>
      <weakClassifiers>
        <_>
          <internalNodes>
            0 -1 64 2.5592085439711809e-03</internalNodes>
          <leafValues>
            -5.1020407676696777e-01 8.3636361360549927e-01</leafValues></_>
        <_>
          <internalNodes>
            0 -1 14 5.5226418189704418e-03</internalNodes>
          <leafValues>
            -4.4961225986480713e-01 9.0458321571350098e-01</leafValues></_>
        <_>
          <internalNodes>
            0 -1 19 3.6058206111192703e-02</internalNodes>
          <leafValues>
            4.6733778715133667e-01 -1.</leafValues></_></weakClassifiers></_>
    <!-- stage 9 -->
    <_>
      <maxWeakCount>3</maxWeakCount>
      <stageThreshold>-6.1524677276611328e-01</stageThreshold>
      <weakClassifiers>
        <_>
          <internalNodes>
            0 -1 40 -1.9619580358266830e-02</internalNodes>
          <leafValues>
            7.9032260179519653e-01 -6.0902255773544312e-01</leafValues></_>
        <_>
          <internalNodes>
            0 -1 50 2.1027613431215286e-02</internalNodes>
          <leafValues>
            -6.0685330629348755e-01 7.6979279518127441e-01</leafValues></_>
        <_>
          <internalNodes>
            0 -1 7 1.6718253493309021e-02</internalNodes>
          <leafValues>
            -6.8458759784698486e-01 6.0062909126281738e-01</leafValues></_></weakClassifiers></_>
    <!-- stage 10 -->
    <_>
      <maxWeakCount>2</maxWeakCount>
      <stageThreshold>-2.2232029587030411e-02</stageThreshold>
      <weakClassifiers>
        <_>
          <internalNodes>
            0 -1 70 1.2006589677184820e-03</internalNodes>
          <leafValues>
            -6.2686568498611450e-01 8.2113820314407349e-01</leafValues></_>
        <_>
          <internalNodes>
            0 -1 36 -8.1047452986240387e-03</internalNodes>
          <leafValues>
            6.2271076440811157e-01 -8.4337025880813599e-01</leafValues></_></weakClassifiers></_>
    <!-- stage 11 -->
    <_>
      <maxWeakCount>4</maxWeakCount>
      <stageThreshold>-9.3814623355865479e-01</stageThreshold>
      <weakClassifiers>
        <_>
          <internalNodes>
            0 -1 21 3.2197325490415096e-03</internalNodes>
          <leafValues>
            -5.1677852869033813e-01 8.7037038803100586e-01</leafValues></_>
        <_>
          <internalNodes>
            0 -1 66 -5.0211707130074501e-03</internalNodes>
          <leafValues>
            8.0261981487274170e-01 -4.8321649432182312e-01</leafValues></_>
        <_>
          <internalNodes>
            0 -1 62 1.2766839936375618e-02</internalNodes>
          <leafValues>
            -5.1322066783905029e-01 8.4639120101928711e-01</leafValues></_>
        <_>
          <internalNodes>
            0 -1 32 -2.2399062290787697e-03</internalNodes>
          <leafValues>
            -7.4013555049896240e-01 5.7506942749023438e-01</leafValues></_></weakClassifiers></_>
    <!-- stage 12 -->
    <_>
      <maxWeakCount>3</maxWeakCount>
      <stageThreshold>-2.2735041379928589e-01</stageThreshold>
      <weakClassifiers>
        <_>
          <internalNodes>
            0 -1 33 -6.7445351742208004e-03</internalNodes>
          <leafValues>
            7.7235770225524902e-01 -5.8208954334259033e-01</leafValues></_>
        <_>
          <internalNodes>
            0 -1 4 -7.1000484749674797e-03</internalNodes>
          <leafValues>
            7.7254134416580200e-01 -5.0330108404159546e-01</leafValues></_>
        <_>
          <internalNodes>
            0 -1 69 6.0151368379592896e-03</internalNodes>
          <leafValues>
            -4.1780224442481995e-01 9.3504035472869873e-01</leafValues></_></weakClassifiers></_>
    <!-- stage 13 -->
    <_>
      <maxWeakCount>4</maxWeakCount>
      <stageThreshold>-2.9964646697044373e-01</stageThreshold>
      <weakClassifiers>
        <_>
          <internalNodes>
            0 -1 30 2.8840296436101198e-03</internalNodes>
          <leafValues>
            4.7191011905670166e-01 -8.4810125827789307e-01</leafValues></_>
        <_>
          <internalNodes>
            0 -1 17 5.0411047413945198e-03</internalNodes>
          <leafValues>
            -8.9565700292587280e-01 4.0876567363739014e-01</leafValues></_>
        <_>
          <internalNodes>
            0 -1 48 1.1366319376975298e-03</internalNodes>
          <leafValues>
            -5.7465237379074097e-01 7.2136306762695313e-01</leafValues></_>
        <_>
          <internalNodes>
            0 -1 46 9.7943586297333241e-04</internalNodes>
          <leafValues>
            -4.9075305461883545e-01 7.1434146165847778e-01</leafValues></_></weakClassifiers></_>
    <!-- stage 14 -->
    <_>
      <maxWeakCount>3</maxWeakCount>
      <stageThreshold>-9.6201103925704956e-01</stageThreshold>
      <weakClassifiers>
        <_>
          <internalNodes>
            0 -1 22 2.6330859400331974e-03</internalNodes>
          <leafValues>
            8.2312923669815063e-01 -9.4545453786849976e-01</leafValues></_>
        <_>
          <internalNodes>
            0 -1 18 -3.2106471061706543e-01</internalNodes>
          <leafValues>
            8.1329333782196045e-01 -7.2385990619659424e-01</leafValues></_>
        <_>
          <internalNodes>
            0 -1 41 1.6105247661471367e-02</internalNodes>
          <leafValues>
            7.0730346441268921e-01 -7.8440368175506592e-01</leafValues></_></weakClassifiers></_>
    <!-- stage 15 -->
    <_>
      <maxWeakCount>4</maxWeakCount>
      <stageThreshold>-1.0728778839111328e+00</stageThreshold>
      <weakClassifiers>
        <_>
          <internalNodes>
            0 -1 9 2.1333597600460052e-02</internalNodes>
          <leafValues>
            -5.2447551488876343e-01 8.0701756477355957e-01</leafValues></_>
        <_>
          <internalNodes>
            0 -1 61 -5.8258264325559139e-03</internalNodes>
          <leafValues>
            7.7106654644012451e-01 -5.1153224706649780e-01</leafValues></_>
        <_>
          <internalNodes>
            0 -1 10 -1.5979140996932983e-02</internalNodes>
          <leafValues>
            8.2730555534362793e-01 -4.6892625093460083e-01</leafValues></_>
        <_>
          <internalNodes>
            0 -1 24 1.7385467886924744e-02</internalNodes>
          <leafValues>
            4.3205615878105164e-01 -9.7783595323562622e-01</leafValues></_></weakClassifiers></_>
    <!-- stage 16 -->
    <_>
      <maxWeakCount>3</maxWeakCount>
      <stageThreshold>-7.0552581548690796e-01</stageThreshold>
      <weakClassifiers>
        <_>
          <internalNodes>
            0 -1 35 -4.2465038597583771e-02</internalNodes>
          <leafValues>
            6.6451615095138550e-01 -8.4313726425170898e-01</leafValues></_>
        <_>
          <internalNodes>
            0 -1 63 7.8009408898651600e-03</internalNodes>
          <leafValues>
            -4.5537775754928589e-01 9.6695727109909058e-01</leafValues></_>
        <_>
          <internalNodes>
            0 -1 12 -3.3513028756715357e-04</internalNodes>
          <leafValues>
            5.9298920631408691e-01 -7.0617610216140747e-01</leafValues></_></weakClassifiers></_>
    <!-- stage 17 -->
    <_>
      <maxWeakCount>3</maxWeakCount>
      <stageThreshold>-7.7131205797195435e-01</stageThreshold>
      <weakClassifiers>
        <_>
          <internalNodes>
            0 -1 42 7.0822872221469879e-03</internalNodes>
          <leafValues>
            6.4197528362274170e-01 -9.1578948497772217e-01</leafValues></_>
        <_>
          <internalNodes>
            0 -1 65 4.0891463868319988e-03</internalNodes>
          <leafValues>
            -5.3300803899765015e-01 9.8479127883911133e-01</leafValues></_>
        <_>
          <internalNodes>
            0 -1 57 -2.0182913169264793e-02</internalNodes>
          <leafValues>
            6.7748546600341797e-01 -7.0123857259750366e-01</leafValues></_></weakClassifiers></_>
    <!-- stage 18 -->
    <_>
      <maxWeakCount>3</maxWeakCount>
      <stageThreshold>-5.8482974767684937e-01</stageThreshold>
      <weakClassifiers>
        <_>
          <internalNodes>
            0 -1 52 -1.6807413101196289e-01</internalNodes>
          <leafValues>
            9.1150444746017456e-01 -5.9722220897674561e-01</leafValues></_>
        <_>
          <internalNodes>
            0 -1 53 -5.5766303557902575e-04</internalNodes>
          <leafValues>
            -8.1903809309005737e-01 6.5286320447921753e-01</leafValues></_>
        <_>
          <internalNodes>
            0 -1 49 8.3194545004516840e-04</internalNodes>
          <leafValues>
            -6.3497877120971680e-01 8.3143055438995361e-01</leafValues></_></weakClassifiers></_>
    <!-- stage 19 -->
    <_>
      <maxWeakCount>5</maxWeakCount>
      <stageThreshold>-4.4131118059158325e-01</stageThreshold>
      <weakClassifiers>
        <_>
          <internalNodes>
            0 -1 34 -2.6493310928344727e-01</internalNodes>
          <leafValues>
            6.1589401960372925e-01 -7.1698111295700073e-01</leafValues></_>
        <_>
          <internalNodes>
            0 -1 60 2.8735928935930133e-04</internalNodes>
          <leafValues>
            -6.8132239580154419e-01 5.7261145114898682e-01</leafValues></_>
        <_>
          <internalNodes>
            0 -1 38 3.0849542235955596e-04</internalNodes>
          <leafValues>
            -4.2589560151100159e-01 9.4525724649429321e-01</leafValues></_>
        <_>
          <internalNodes>
            0 -1 37 -1.2752048671245575e-02</internalNodes>
          <leafValues>
            7.8861987590789795e-01 -5.1274609565734863e-01</leafValues></_>
        <_>
          <internalNodes>
            0 -1 67 -8.3083510398864746e-03</internalNodes>
          <leafValues>
            6.4170020818710327e-01 -6.7449283599853516e-01</leafValues></_></weakClassifiers></_>
    <!-- stage 20 -->
    <_>
      <maxWeakCount>3</maxWeakCount>
      <stageThreshold>-2.0404799282550812e-01</stageThreshold>
      <weakClassifiers>
        <_>
          <internalNodes>
            0 -1 55 3.5886250436306000e-02</internalNodes>
          <leafValues>
            -4.0000000596046448e-01 8.3505153656005859e-01</leafValues></_>
        <_>
          <internalNodes>
            0 -1 26 2.6012942544184625e-04</internalNodes>
          <leafValues>
            -3.9617007970809937e-01 8.1011557579040527e-01</leafValues></_>
        <_>
          <internalNodes>
            0 -1 45 -4.1914796456694603e-03</internalNodes>
          <leafValues>
            6.1739021539688110e-01 -6.1416357755661011e-01</leafValues></_></weakClassifiers></_>
    <!-- stage 21 -->
    <_>
      <maxWeakCount>3</maxWeakCount>
      <stageThreshold>-7.1448409557342529e-01</stageThreshold>
      <weakClassifiers>
        <_>
          <internalNodes>
            0 -1 25 -9.8848957568407059e-03</internalNodes>
          <leafValues>
            -9.3258428573608398e-01 5.9523808956146240e-01</leafValues></_>
        <_>
          <internalNodes>
            0 -1 71 2.2798103746026754e-03</internalNodes>
          <leafValues>
            -5.2576673030853271e-01 9.8496443033218384e-01</leafValues></_>
        <_>
          <internalNodes>
            0 -1 27 1.3034676667302847e-03</internalNodes>
          <leafValues>
            -6.5488570928573608e-01 7.4386686086654663e-01</leafValues></_></weakClassifiers></_>
    <!-- stage 22 -->
    <_>
      <maxWeakCount>4</maxWeakCount>
      <stageThreshold>-1.8145553767681122e-01</stageThreshold>
      <weakClassifiers>
        <_>
          <internalNodes>
            0 -1 20 -1.9251969642937183e-03</internalNodes>
          <leafValues>
            6.6917294263839722e-01 -5.8064514398574829e-01</leafValues></_>
        <_>
          <internalNodes>
            0 -1 23 3.4674115478992462e-02</internalNodes>
          <leafValues>
            4.7347170114517212e-01 -1.</leafValues></_>
        <_>
          <internalNodes>
            0 -1 16 -6.3726096414029598e-04</internalNodes>
          <leafValues>
            7.8071439266204834e-01 -5.1569819450378418e-01</leafValues></_>
        <_>
          <internalNodes>
            0 -1 51 2.1557484287768602e-03</internalNodes>
          <leafValues>
            -8.0840200185775757e-01 6.2463337182998657e-01</leafValues></_></weakClassifiers></_>
    <!-- stage 23 -->
    <_>
      <maxWeakCount>3</maxWeakCount>
      <stageThreshold>-6.4542835950851440e-01</stageThreshold>
      <weakClassifiers>
        <_>
          <internalNodes>
            0 -1 2 2.4259318597614765e-03</internalNodes>
          <leafValues>
            -7.6146787405014038e-01 6.7567569017410278e-01</leafValues></_>
        <_>
          <internalNodes>
            0 -1 68 9.1010471805930138e-03</internalNodes>
          <leafValues>
            -4.3831005692481995e-01 9.8321819305419922e-01</leafValues></_>
        <_>
          <internalNodes>
            0 -1 56 -4.0023792535066605e-02</internalNodes>
          <leafValues>
            -7.6189118623733521e-01 5.5434960126876831e-01</leafValues></_></weakClassifiers></_>
    <!-- stage 24 -->
    <_>
      <maxWeakCount>2</maxWeakCount>
      <stageThreshold>-2.2827281057834625e-01</stageThreshold>
      <weakClassifiers>
        <_>
          <internalNodes>
            0 -1 3 4.7838571481406689e-03</internalNodes>
          <leafValues>
            -9.8076921701431274e-01 7.7777779102325439e-01</leafValues></_>
        <_>
          <internalNodes>
            0 -1 58 -6.0456898063421249e-02</internalNodes>
          <leafValues>
            7.5249642133712769e-01 -8.7179815769195557e-01</leafValues></_></weakClassifiers></_></stages>
  <features>
    <_>
      <rects>
        <_>
          0 0 6 23 -1.</_>
        <_>
          3 0 3 23 2.</_></rects>
      <tilted>0</tilted></_>
    <_>
      <rects>
        <_>
          0 2 16 10 -1.</_>
        <_>
          0 2 8 5 2.</_>
        <_>
          8 7 8 5 2.</_></rects>
      <tilted>0</tilted></_>
    <_>
      <rects>
        <_>
          0 4 6 23 -1.</_>
        <_>
          3 4 3 23 2.</_></rects>
      <tilted>0</tilted></_>
    <_>
      <rects>
        <_>
          0 4 7 14 -1.</_>
        <_>
          0 11 7 7 2.</_></rects>
      <tilted>0</tilted></_>
    <_>
      <rects>
        <_>
          0 7 10 6 -1.</_>
        <_>
          0 7 5 3 2.</_>
        <_>
          5 10 5 3 2.</_></rects>
      <tilted>0</tilted></_>
    <_>
      <rects>
        <_>
          0 16 11 14 -1.</_>
        <_>
          0 23 11 7 2.</_></rects>
      <tilted>0</tilted></_>
    <_>
      <rects>
        <_>
          0 28 24 2 -1.</_>
        <_>
          8 28 8 2 2.</_></rects>
      <tilted>0</tilted></_>
    <_>
      <rects>
        <_>
          1 3 16 4 -1.</_>
        <_>
          9 3 8 4 2.</_></rects>
      <tilted>0</tilted></_>
    <_>
      <rects>
        <_>
          2 0 22 10 -1.</_>
        <_>
          13 0 11 10 2.</_></rects>
      <tilted>0</tilted></_>
    <_>
      <rects>
        <_>
          2 0 25 6 -1.</_>
        <_>
          2 3 25 3 2.</_></rects>
      <tilted>0</tilted></_>
    <_>
      <rects>
        <_>
          2 15 18 4 -1.</_>
        <_>
          2 17 18 2 2.</_></rects>
      <tilted>0</tilted></_>
    <_>
      <rects>
        <_>
          2 15 26 14 -1.</_>
        <_>
          2 22 26 7 2.</_></rects>
      <tilted>0</tilted></_>
    <_>
      <rects>
        <_>
          2 27 8 2 -1.</_>
        <_>
          2 28 8 1 2.</_></rects>
      <tilted>0</tilted></_>
    <_>
      <rects>
        <_>
          3 2 4 1 -1.</_>
        <_>
          5 2 2 1 2.</_></rects>
      <tilted>0</tilted></_>
    <_>
      <rects>
        <_>
          3 12 20 2 -1.</_>
        <_>
          3 13 20 1 2.</_></rects>
      <tilted>0</tilted></_>
    <_>
      <rects>
        <_>
          3 22 3 8 -1.</_>
        <_>
          3 26 3 4 2.</_></rects>
      <tilted>0</tilted></_>
    <_>
      <rects>
        <_>
          3 28 4 2 -1.</_>
        <_>
          3 29 4 1 2.</_></rects>
      <tilted>0</tilted></_>
    <_>
      <rects>
        <_>
          5 1 10 5 -1.</_>
        <_>
          10 1 5 5 2.</_></rects>
      <tilted>0</tilted></_>
    <_>
      <rects>
        <_>
          5 2 15 15 -1.</_>
        <_>
          10 2 5 15 2.</_></rects>
      <tilted>0</tilted></_>
    <_>
      <rects>
        <_>
          5 3 12 5 -1.</_>
        <_>
          11 3 6 5 2.</_></rects>
      <tilted>0</tilted></_>
    <_>
      <rects>
        <_>
          5 8 6 3 -1.</_>
        <_>
          8 8 3 3 2.</_></rects>
      <tilted>0</tilted></_>
    <_>
      <rects>
        <_>
          5 12 13 2 -1.</_>
        <_>
          5 13 13 1 2.</_></rects>
      <tilted>0</tilted></_>
    <_>
      <rects>
        <_>
          5 15 10 9 -1.</_>
        <_>
          10 15 5 9 2.</_></rects>
      <tilted>0</tilted></_>
    <_>
      <rects>
        <_>
          5 18 18 7 -1.</_>
        <_>
          14 18 9 7 2.</_></rects>
      <tilted>0</tilted></_>
    <_>
      <rects>
        <_>
          6 1 8 5 -1.</_>
        <_>
          10 1 4 5 2.</_></rects>
      <tilted>0</tilted></_>
    <_>
      <rects>
        <_>
          6 5 22 6 -1.</_>
        <_>
          17 5 11 6 2.</_></rects>
      <tilted>0</tilted></_>
    <_>
      <rects>
        <_>
          6 13 2 2 -1.</_>
        <_>
          6 14 2 1 2.</_></rects>
      <tilted>0</tilted></_>
    <_>
      <rects>
        <_>
          7 1 4 5 -1.</_>
        <_>
          9 1 2 5 2.</_></rects>
      <tilted>0</tilted></_>
    <_>
      <rects>
        <_>
          7 1 14 28 -1.</_>
        <_>
          7 15 14 14 2.</_></rects>
      <tilted>0</tilted></_>
    <_>
      <rects>
        <_>
          7 8 11 10 -1.</_>
        <_>
          7 13 11 5 2.</_></rects>
      <tilted>0</tilted></_>
    <_>
      <rects>
        <_>
          7 18 22 10 -1.</_>
        <_>
          7 18 11 5 2.</_>
        <_>
          18 23 11 5 2.</_></rects>
      <tilted>0</tilted></_>
    <_>
      <rects>
        <_>
          8 0 21 4 -1.</_>
        <_>
          8 2 21 2 2.</_></rects>
      <tilted>0</tilted></_>
    <_>
      <rects>
        <_>
          9 0 1 28 -1.</_>
        <_>
          9 14 1 14 2.</_></rects>
      <tilted>0</tilted></_>
    <_>
      <rects>
        <_>
          9 2 4 8 -1.</_>
        <_>
          9 6 4 4 2.</_></rects>
      <tilted>0</tilted></_>
    <_>
      <rects>
        <_>
          9 2 11 15 -1.</_>
        <_>
          9 7 11 5 2.</_></rects>
      <tilted>0</tilted></_>
    <_>
      <rects>
        <_>
          9 7 4 9 -1.</_>
        <_>
          9 10 4 3 2.</_></rects>
      <tilted>0</tilted></_>
    <_>
      <rects>
        <_>
          9 16 7 8 -1.</_>
        <_>
          9 20 7 4 2.</_></rects>
      <tilted>0</tilted></_>
    <_>
      <rects>
        <_>
          10 4 8 4 -1.</_>
        <_>
          10 6 8 2 2.</_></rects>
      <tilted>0</tilted></_>
    <_>
      <rects>
        <_>
          11 0 3 2 -1.</_>
        <_>
          11 1 3 1 2.</_></rects>
      <tilted>0</tilted></_>
    <_>
      <rects>
        <_>
          11 3 9 8 -1.</_>
        <_>
          11 7 9 4 2.</_></rects>
      <tilted>0</tilted></_>
    <_>
      <rects>
        <_>
          11 5 12 6 -1.</_>
        <_>
          11 8 12 3 2.</_></rects>
      <tilted>0</tilted></_>
    <_>
      <rects>
        <_>
          12 1 15 18 -1.</_>
        <_>
          12 10 15 9 2.</_></rects>
      <tilted>0</tilted></_>
    <_>
      <rects>
        <_>
          12 3 3 26 -1.</_>
        <_>
          12 16 3 13 2.</_></rects>
      <tilted>0</tilted></_>
    <_>
      <rects>
        <_>
          12 14 8 10 -1.</_>
        <_>
          12 19 8 5 2.</_></rects>
      <tilted>0</tilted></_>
    <_>
      <rects>
        <_>
          12 20 14 10 -1.</_>
        <_>
          12 20 7 5 2.</_>
        <_>
          19 25 7 5 2.</_></rects>
      <tilted>0</tilted></_>
    <_>
      <rects>
        <_>
          12 24 16 6 -1.</_>
        <_>
          12 27 16 3 2.</_></rects>
      <tilted>0</tilted></_>
    <_>
      <rects>
        <_>
          13 11 4 2 -1.</_>
        <_>
          13 12 4 1 2.</_></rects>
      <tilted>0</tilted></_>
    <_>
      <rects>
        <_>
          13 12 5 2 -1.</_>
        <_>
          13 13 5 1 2.</_></rects>
      <tilted>0</tilted></_>
    <_>
      <rects>
        <_>
          13 14 6 1 -1.</_>
        <_>
          16 14 3 1 2.</_></rects>
      <tilted>0</tilted></_>
    <_>
      <rects>
        <_>
          14 0 3 4 -1.</_>
        <_>
          14 2 3 2 2.</_></rects>
      <tilted>0</tilted></_>
    <_>
      <rects>
        <_>
          14 10 12 12 -1.</_>
        <_>
          14 10 6 6 2.</_>
        <_>
          20 16 6 6 2.</_></rects>
      <tilted>0</tilted></_>
    <_>
      <rects>
        <_>
          14 20 12 3 -1.</_>
        <_>
          20 20 6 3 2.</_></rects>
      <tilted>0</tilted></_>
    <_>
      <rects>
        <_>
          15 4 8 12 -1.</_>
        <_>
          15 8 8 4 2.</_></rects>
      <tilted>0</tilted></_>
    <_>
      <rects>
        <_>
          15 20 8 3 -1.</_>
        <_>
          19 20 4 3 2.</_></rects>
      <tilted>0</tilted></_>
    <_>
      <rects>
        <_>
          16 9 13 21 -1.</_>
        <_>
          16 16 13 7 2.</_></rects>
      <tilted>0</tilted></_>
    <_>
      <rects>
        <_>
          16 11 8 14 -1.</_>
        <_>
          16 11 4 7 2.</_>
        <_>
          20 18 4 7 2.</_></rects>
      <tilted>0</tilted></_>
    <_>
      <rects>
        <_>
          17 2 1 27 -1.</_>
        <_>
          17 11 1 9 2.</_></rects>
      <tilted>0</tilted></_>
    <_>
      <rects>
        <_>
          17 4 1 12 -1.</_>
        <_>
          17 8 1 4 2.</_></rects>
      <tilted>0</tilted></_>
    <_>
      <rects>
        <_>
          17 12 6 8 -1.</_>
        <_>
          19 12 2 8 2.</_></rects>
      <tilted>0</tilted></_>
    <_>
      <rects>
        <_>
          18 5 7 6 -1.</_>
        <_>
          18 8 7 3 2.</_></rects>
      <tilted>0</tilted></_>
    <_>
      <rects>
        <_>
          18 19 2 7 -1.</_>
        <_>
          19 19 1 7 2.</_></rects>
      <tilted>0</tilted></_>
    <_>
      <rects>
        <_>
          19 24 8 6 -1.</_>
        <_>
          19 27 8 3 2.</_></rects>
      <tilted>0</tilted></_>
    <_>
      <rects>
        <_>
          20 0 7 8 -1.</_>
        <_>
          20 4 7 4 2.</_></rects>
      <tilted>0</tilted></_>
    <_>
      <rects>
        <_>
          21 9 3 8 -1.</_>
        <_>
          21 13 3 4 2.</_></rects>
      <tilted>0</tilted></_>
    <_>
      <rects>
        <_>
          22 11 1 10 -1.</_>
        <_>
          22 16 1 5 2.</_></rects>
      <tilted>0</tilted></_>
    <_>
      <rects>
        <_>
          22 12 2 6 -1.</_>
        <_>
          22 15 2 3 2.</_></rects>
      <tilted>0</tilted></_>
    <_>
      <rects>
        <_>
          23 6 4 22 -1.</_>
        <_>
          23 6 2 11 2.</_>
        <_>
          25 17 2 11 2.</_></rects>
      <tilted>0</tilted></_>
    <_>
      <rects>
        <_>
          23 18 7 8 -1.</_>
        <_>
          23 22 7 4 2.</_></rects>
      <tilted>0</tilted></_>
    <_>
      <rects>
        <_>
          24 3 6 8 -1.</_>
        <_>
          24 3 3 4 2.</_>
        <_>
          27 7 3 4 2.</_></rects>
      <tilted>0</tilted></_>
    <_>
      <rects>
        <_>
          24 8 6 6 -1.</_>
        <_>
          24 8 3 3 2.</_>
        <_>
          27 11 3 3 2.</_></rects>
      <tilted>0</tilted></_>
    <_>
      <rects>
        <_>
          24 11 4 3 -1.</_>
        <_>
          26 11 2 3 2.</_></rects>
      <tilted>0</tilted></_>
    <_>
      <rects>
        <_>
          26 5 4 6 -1.</_>
        <_>
          26 5 2 3 2.</_>
        <_>
          28 8 2 3 2.</_></rects>
      <tilted>0</tilted></_></features></cascade>
</opencv_storage>
